{"sizes": [17, 35, 3], "weights": [[[0.01748885379689395, 1.0905093929431442, -2.892813231678141, 0.19539492163672967, 0.21014583738833245, -1.3910829657702368, -1.0328944891790257, 5.52922737590983, 7.5136855570187375, 0.18155293392009844, 0.2934045776446933, -8.473805195240974, -2.2820194826730917, 3.4266610770674406, -5.041919881637331, 4.950852052070167, -10.134795528677762], [0.2860803470025516, 2.230226304857137, -2.995844029407283, -1.0668042237413027, -2.79556143621256, 7.157707693756561, 0.019259649762582275, 1.7402588212225312, 15.015413025860347, 0.1020185043660756, 0.868135815021174, 0.8440215053609068, 2.9384375307613086, 7.616919003930108, 3.9604358989268715, 0.5580456996167329, 1.4698091101347694], [-0.05440056105971491, -1.5038835724735031, -0.11956340851001404, 0.30480158801043145, 1.5425427862376386, -3.3208057065765195, -1.2638294929156373, 2.0850393999148586, -2.1481025114818815, 0.15469407167654378, 5.035862686341561, 6.936050396657527, -2.993152749351336, -5.448086498814553, 0.5064601786221723, -4.069806602685283, -3.5234191289407892], [0.0017442784251045101, -0.6376950075681992, -1.1305058377665955, 0.13717048730227574, 0.37908008627153794, -1.3942245498159256, -0.19002488327472483, -0.14753036709575898, -1.0593273326407138, -0.21519017628319795, -0.6595016423335998, -0.05029228980314296, -0.6648513872846336, -0.15062205966008668, -0.37209272579939756, -0.7413277782264855, -0.055092697391440036], [-0.06573517513534675, -0.3151137259135915, -0.059702248746808316, 0.23501766803860924, -0.13981815174239995, -1.0918726844784632, -0.34243048341401594, 0.5804209158002304, -1.5768831025437975, -0.09080591693944558, -0.9093647349415255, -1.1957153596431342, -0.7877510224618723, -0.7935179936439557, -0.2292044911993723, -0.792040504468026, -0.2762436762909312], [-0.07390713011360596, 0.4688347528326459, 0.5101379048896209, -0.6950923843612054, -1.296249992891151, 1.2464044502539064, 1.3620574270162524, -1.176420371692672, 1.0374181151798798, -0.18407260873544423, 2.3496259383055693, 2.9488593201916915, 2.3507392087642023, 0.2769717911329646, -0.15076387561519344, 1.4094970785420784, 0.04735023282143654], [-0.26811933505675, 0.29535098354998557, -1.5763559240836282, 0.09339736944752057, 0.21590244712946458, -0.6531951719666637, -1.5381445374714284, 1.024368161734935, 1.0599485009079619, -0.007417759705144731, -0.8073069759869662, -2.568749185313212, -0.21461911139907255, -2.246134132638225, 1.8843251771889997, -1.5882396462787807, 0.39795848119396143], [-0.1931648257098136, -2.5443340546509474, -1.8789649340690473, -0.05223566802529642, -0.1152006754612462, -3.170873692255509, -0.9886622983978675, 0.5040358669106015, -3.3072033460038948, -0.07365436287543953, 2.5570493207935834, -9.891051482532246, -0.8559176308577843, -4.522973933269192, -5.9473373332047546, 1.3567192489393847, -5.979434213316742], [-0.5429528137497704, -0.7174297589496201, -1.1210774640416337, 0.300072352011197, 0.10097138719880701, -5.314175153115569, -0.7291566274217672, 2.9491327904298683, -5.697756786722667, 0.21742689354322267, -1.0549289289405566, -6.300530608282058, -1.536688492285711, -2.741506708156083, -1.004435952249665, -1.4961346696295363, -4.438661444719439], [-0.08123517051990503, -0.3007842258720606, -0.13736602894839356, 0.4512928076139319, 0.5677765230526233, -0.6616791104203348, -0.23914438561485493, 0.4028928715987981, -0.5011081360139702, -0.15002850383667246, -1.0708960681165751, -0.9648997068578157, -0.9883493548886696, -0.2813601236954551, -0.35585864447965865, -0.905847173567018, -0.44595031531996976], [-0.21682809730962188, 2.8002935252817864, -1.174061639980732, -1.0394545409733638, -3.977772849996406, 8.594517620005302, 1.1922264833872265, -0.7412259470364828, 16.846765147783902, -0.42775154296754525, 2.5516200005505745, 1.8960926431888694, 0.17136140717599752, 0.9320014857578968, 4.635442072293959, -0.9700971605386964, 1.5833703731838642], [-0.1295952697031581, 0.31942343603281137, -0.3575484315889921, 0.11708168688501677, -0.48509750085708303, -0.8189242146264495, -0.552281438589901, 0.9516564164005779, -0.25795004556343215, 0.09447504557900382, -0.473770831650845, -3.180888259132144, -0.7757498843305486, -0.08046251519541113, -0.34667729598854746, -0.49367620771424814, -2.7194657052722366], [-0.48934703157366816, -0.19084732922295605, -0.2827104646832068, -0.20811800377199213, 0.1656691877953654, -0.5113796091446965, -0.41020271106520345, 0.5876078699988878, -0.8086394290347844, -0.18558800577873727, -0.6110419970045571, -0.5488971203299616, -0.287556411174878, -0.28405081550007805, -0.2937559038966058, -0.42512761519758646, -0.3000584409367583], [-0.181554000717748, -0.8077246583223091, -1.3198346215121621, 0.5670222795963068, 1.403266272651771, -4.428983070714948, -0.043654427919327776, 0.6610592300229309, -5.341032660114636, -0.4983986751922276, 0.9952344695580231, 1.6162709261571935, -2.836884284028966, -6.3620183332208855, -0.3308940839292116, -1.3705366602098705, 0.1781154183275366], [0.28629722065753077, -0.8128480640865235, -0.3132178678566796, 0.6506228075759624, -0.45939197024547135, -5.834630745654035, 0.08228758434565, 3.5066882643929107, -3.6046265018397583, 0.1818657268585239, -3.9705682615695634, -4.695515134425583, -2.706642799770308, -1.278994008612221, 0.42063042714556925, -2.5989597018057546, -4.115873039101903], [0.16118575646866254, -0.42625615713402343, -0.0918081421443272, -0.1168865327892485, 0.003494603401770049, -0.4569291071185316, -0.7889910319681834, -1.394273479222573, 0.018962582460807256, -0.6631935353168613, 2.7524468739565373, 4.207317865319692, 0.5181667798926525, -1.8692834275592818, -0.05624080067803942, -0.36219408813828435, -0.007466959936211561], [0.12805118469309276, 2.666783629926033, 1.652902542772176, -0.43555476154281164, 0.3678650769683934, 12.136589248726738, -2.2280818135105567, -6.816840029676487, 5.528417947838635, 0.1759057116146622, 8.499185286996893, 6.880318448302027, 5.019257627531963, -0.07670800537367363, 2.0446632254632036, 3.387657664425353, 7.438424124163841], [0.22570602383643912, -0.814211984200758, -0.45927647899203505, 0.3650328519418555, -0.5617966611080107, -0.3262285057593126, -0.6895312749674641, 0.14105830898816102, 4.236319564451919, -0.2636895672879076, 2.779759337426342, 4.10289120023936, -3.9394217943546215, -6.459612982688401, 0.2722789005763844, -5.359391895216153, -2.181517611090685], [0.17056715107772952, -5.355275993317042, 1.6348270377996714, 1.304315793523262, 4.066004473889391, -9.786552397552956, -2.7422725022368497, -3.2728789093463475, -22.440378358785985, 0.07970057365924409, -0.18330082989293509, -1.6280258315925984, 1.822907997372258, -6.145848642824767, -11.0754691260746, 7.030564125141456, 4.173337209749683], [-0.20566967285388987, -0.2269931632750824, -1.036926822591468, -0.06689491707749307, 0.3682389184649643, 0.1546890064282609, -1.206955678827278, -0.17954506914107113, 0.9713361413196067, 0.04511726419094405, 0.44241707816785786, -0.25938517418516216, 0.5113578872374012, -2.0457273432448613, 0.7827534679656104, -0.8061589406586577, 0.7114630807155418], [-0.09591106858027434, -0.25337460894221653, -0.15204727304261287, -0.4306034334037807, 0.5352633500720172, -0.9280589720687048, -0.27360388299640803, -0.19894465187082963, -0.7346033682533365, -0.35255862813114675, -0.15953197031892677, 0.7794617073189095, -0.9415602962706318, -1.6748413309804726, 0.11539487914262236, -1.2088195822703856, -0.5263770415923349], [0.0972028633521526, -1.2273144530233437, 0.03705467583550081, 0.04671456112247179, -0.029581152694243454, -1.6315137428874136, -0.9042151636391046, -0.9068063451092625, 0.33523092844589525, -0.16083542835332532, 1.9334290751999634, 3.2977949937771873, -1.0122528313515526, -2.8789117933343062, 0.6664748981697639, -1.170165215966521, -0.9868648780357564], [0.012671024000595941, -0.282596833724959, -0.6267839922575755, 0.022124540052799468, 0.0763976174994634, -0.12464059365023086, -0.4814170138424344, -0.5633027985263299, 1.0984460275168388, 0.26508100609610546, 0.032863455969614916, 0.14923465781728282, -1.524514317064412, -2.2411011390563353, 0.37782605819231474, -1.4115907860380823, -0.1289794373985497], [0.18682684233758007, -0.07300150011554789, -0.757879200723496, 0.05637904354026497, -0.04194464898030359, -1.0592782649163166, -0.4061270152978259, 0.22956386472634557, -0.7383654487866996, 0.34002126549153266, -0.19140109755794316, -0.6076004021895873, -0.6544104829685983, -0.25822571587789994, 0.019249890121874055, -0.7071828459520356, -0.04408549199338954], [-0.07202584968203841, 0.9747165290683518, -1.5223956066872504, -0.07986131877956397, 0.018914811427129846, 0.7892996563387131, -1.2874445295076713, 1.8661877281025698, 3.041779141425101, 0.17237213475447924, 0.4944821178079714, -2.1498581545958655, 2.2539414536054374, -0.6442886969859883, 1.8140019655524693, -0.7946287160082558, 0.9166262503011722], [-0.4524054832455697, -1.14946199431418, -0.11964382588624474, 0.0022247394180209316, 0.2152361231376738, -0.5481600044833856, 0.4451754360765165, 0.40095676738348107, 2.184288829477997, 0.11347725725938848, 3.7742956175776716, 4.866205489901797, -2.154362307826222, -5.739584707275168, 1.0862684464295171, -5.177915280865191, -3.6926856491870095], [-0.123007505359601, 0.9027978991183035, -0.9345416607368233, 0.3005147870723165, 2.4808090124577724, 4.000163038200328, 5.4793507371191525, 4.240589709921603, -0.30303686535988617, -0.10005161235815627, 7.054475712362365, 8.185736852766878, -1.7733188942213447, -11.94797327885181, 1.1890163770983804, -13.255799150225995, -11.905861861226459], [0.32745986102011043, 0.4771532010317601, -1.609916544788119, 0.1276236250224604, -0.05721389440966328, -2.619495484318124, -1.5718401319272246, 2.1400974806188415, -1.843139949913137, 0.5600722648388219, -1.1698942428269123, -3.9369168522538436, -1.6110272896145394, -2.92744671533646, 1.5987327812538719, -2.4599038603326133, -0.957421157522337], [-0.41367200485152045, -0.6940586905119287, -0.4026557636745717, 0.24400999713265423, 1.0532942785367452, -3.13958503708648, -0.8609372557431008, 1.266446145830301, -3.727846566168355, -0.048042456514664204, -0.5387813455914705, -0.4690549336899043, -2.144113024613179, -4.938484719585344, 0.4938546218561384, -3.104775443771339, -1.2744047010908448], [-0.02173867519924312, -0.10934006836552436, -0.3615539865244088, -0.05854474923834764, -0.20304589892204347, -0.6084496486550058, -0.2847957689734113, -0.21927477818514943, -0.4939817993243489, -0.21266268813586303, -0.07830263935824269, -1.091208359649691, -0.3472629834580703, -1.293560462065645, -0.09802173066253478, -0.6778043009165722, 0.2029732366610922], [0.2405760816310383, -0.9217437340712324, -0.07502596694650343, 0.472039665036895, -0.006909979216178037, -0.96850801578291, -0.6401616719153335, 0.00851085206886488, -0.42951509624351997, 0.3862018979762216, -0.18236304873611167, -0.7139990398764271, -1.2082882973463112, -1.71976910551725, 0.12505345938895648, -0.8784168289224014, 0.012073854523052189], [0.16248149048826624, -3.2047400224338203, 0.021454686126913796, 0.5014473482934971, 1.2380759228698808, -6.001347335735256, 0.6451397725816045, -1.3019509674986425, -6.399927858516146, 0.00010439696777132646, 6.476894341610541, 8.666948106001222, 3.113766291409191, -3.886689206176639, -0.5225182132394215, 0.9084613769435619, -4.3411718074201975], [0.15470278590610667, -0.44983817079224175, -0.2187571525270937, -0.12098604026255311, 0.19008236079093013, -0.8456239742019339, -0.5324793625888118, 0.8295130155461243, -0.20082611796910202, -0.25941987099746205, -1.2428370558919302, -0.9955810714703307, -1.2328992158101777, -1.4993444132954814, 1.038562371133169, -1.7668914669697158, -0.6011332112255976], [0.18863674434697478, -0.639993559128241, -0.026479043145623576, 0.4095285519174752, -0.041256245510254204, -0.22228951536067193, -0.14175653395533613, -0.28176821339346, 0.44431286986813295, 0.299083141692716, -0.07471810086746916, -0.5214153182976741, 0.23089257417217793, -0.6460161850460063, -0.39403539019504275, -0.04688947381168758, 0.22090694193589647], [0.4780971415057776, -0.5202348316850794, -0.8365877901761789, -0.14064873999199248, 0.016082048266987288, -0.40388637903748525, -1.0451822980217025, 0.6621141323087804, 0.4872276322151601, -0.15056134562116497, -0.5330003318194964, -2.478059450916249, -0.45816532401186205, -0.42522430639481446, 0.2798583941003485, -0.5452118941139686, -1.0577703353642063]], [[6.390512146397215, -1.87944189366679, -3.405963011146091, 1.2621522793071343, 2.0231283902218693, -4.134756424165793, 2.366110353948876, 6.654511694392783, 6.481194505911788, 1.9725514134901712, -3.241536333075949, 3.6293536795377066, 1.1343699843955615, 1.3014634500435291, 7.152740453008163, -4.6660977017075345, -12.287546653877277, -2.7261512668960606, 0.27505511065018545, -0.6087894292761148, 0.2736490803828041, -2.0565714230322176, -0.042467103338538974, 1.173888132035013, 1.2999655277396884, -3.0059263277791035, -5.629731498500573, 4.7734451618090326, 3.8961934106153557, 0.8386340499247209, 1.115710721475652, -6.24555699077927, 2.0749166695917487, 0.10062551729763591, 2.0018523194857045], [-9.687155344842704, -8.500769842442065, 4.188163578310836, -0.02010022275774916, -0.45135606722213123, -0.6133023503222043, -2.811313433318967, -12.196508845975982, -5.86310237747596, -0.04510421874636063, -7.8902285914455685, -1.6154482191505324, 0.007634348154923528, -0.9315526978463441, -5.761551260780174, 0.5363613712641352, 14.004667174309164, 6.497820925313712, 12.695903438203057, -1.9311827405837398, 0.06604649015501553, 1.9297852018951602, 0.06358950195202999, -0.3743420373530107, -3.303948610480968, 5.865893006545422, 15.807016671817507, -3.217259005121536, -1.149533481688157, -0.829909944261838, -0.7017950283993885, 6.689048864322084, -1.3102795306259278, -0.4079302419869624, -1.1756701304088293], [0.8396384618965919, 7.126137340525462, -4.533599978555122, -1.8629632389998318, -2.5369463923444013, 3.2305679493699375, -3.4214387121225904, -6.58018772479392, -9.007836268107365, -1.5870964073816267, 9.174891753198839, -1.7186569013482675, -1.0910478584528307, -7.324459986745083, -7.214892093669527, 0.43425855402189584, 10.50608769637029, -7.055568299725617, -11.44413936551892, -1.8175976034760695, -2.321517819875517, -1.954939569828338, -2.710530905951364, -1.652307136984892, -0.3776438869145772, -4.3138525589446095, -8.199366655288854, -6.271038476595373, -6.353774276756489, -1.9957163552537023, -2.707479033471147, -2.269274603462508, -3.054421629560431, -0.3750051287727907, -1.6120049618733865]]], "cost": "CrossEntropyCost", "biases": [[[3.9710327821364286], [-12.651890390386816], [2.2560461387014303], [1.271982323601673], [1.6270707178378923], [-4.5676022564809005], [2.7206138460072102], [10.476632129786834], [9.2577169226696], [1.0360705333201439], [-9.973343347689019], [2.3897213325997253], [-0.47398417940711995], [6.637422468239616], [8.630257203820296], [-2.085207540930792], [-15.580309505245529], [1.9230403760003962], [11.950272367983944], [0.32771084873771333], [0.8274003057244714], [0.29506855335982973], [0.9387071882520386], [0.431719271131362], [-1.4500203403537555], [0.6037790573163687], [-0.40508660041008054], [6.077771435776536], [7.172103988111376], [0.6987679650596056], [2.0212331883417085], [-1.6871720121162703], [2.420959668977245], [-1.4684467335062685], [2.0525706659082283]], [[-0.9883740516182478], [-5.6800778830309575], [3.3559698540296687]]]}