{"sizes": [4, 15, 3], "weights": [[[-0.03955104775571685, 0.04584820297087858, -0.35000423894517885, -0.8724231049650794], [0.008961016534359973, 0.019603081282207967, 0.23445861251514868, 0.48402786030838957], [0.036385234854429016, 0.04717723897728123, -0.29436152447632175, -0.24755627507009212], [0.020176729648608088, -0.16773070790079012, 1.242972513380011, 2.4349190811683137], [0.027490945569101206, 0.13759224633623326, -0.6817514124378086, -1.3330654584238009], [0.03543432425785494, -0.3203909524152651, 2.4637090910111037, 3.8457005547618883], [0.06756688283467101, -0.2859793056036567, 2.2287342748762313, 4.094657754434295], [-0.018030356883515803, 0.07598150632446052, -0.3839941133673376, -0.6153743541110832], [0.00029869408055681763, -0.2613689466226908, 1.3530505626856413, 2.0306700863836236], [0.11536479472241715, -0.04855458725469762, 0.34379476178203755, 0.3436746986324582], [-0.01546209706397219, 0.46546992729806425, -2.3870353040194354, -3.890534341700889], [-0.049008404822546425, 0.04019196888445027, -0.16605555146376674, -0.15683543603871553], [-0.02662603132806675, -0.05507583034285578, 0.055918319808869424, 0.1284068594604245], [0.028046811814181716, 0.027263098097988953, -0.09778270789883273, -0.22159600830422913], [-0.04985276373694106, 0.16784360734530424, -0.9959168089081333, -1.7345771495485895]], [[-0.6899938843180538, 0.35927807676568385, -0.32017137016773667, 1.9685195712039807, -1.1637170922188882, 3.5668531392464664, 3.5999988849010576, -0.5649878860805168, 1.8131310375110663, 0.3278824046558345, -3.6770618481493917, -0.2161284055151214, 0.042823912975763795, -0.17875991511845765, -1.5476319625760016], [0.05564474510528674, -0.01679250603099764, 0.13126750494948092, -0.34761807121488214, 0.16021811008951728, -1.098991617613218, -0.773248816377258, 0.17327686529117894, -0.5448556764497666, -0.17158473203084573, 1.0302103238079174, 0.09908047159453423, 0.0007483851722833116, 0.050247933480424084, 0.30766256266249953], [0.6227445617042908, -0.4048286780885028, 0.19357709354146643, -1.935409451277788, 0.9961085909505797, -3.0463666162258107, -3.3203864436145465, 0.3976154377596851, -1.6008728010841187, -0.30375312790847, 3.0256866727659055, 0.061297124864369654, -0.1691867209055477, 0.1406921619411148, 1.3154689698334843]]], "biases": [[[0.07538431868840344], [-0.4755532711288923], [-1.3023609828624354], [-0.7541005573046861], [0.16628100953113178], [-1.3216462568295229], [-1.2843222163088999], [0.5091055653460865], [-0.7160160666701633], [-0.6850883578441799], [1.2669994712931654], [-0.0695990603899299], [0.9019546644941849], [0.032746294904634744], [0.4273678148547297]], [[-2.6232353484376802], [-0.1435678292243333], [0.016563033189711168]]], "cost": "CrossEntropyCost"}