{"biases": [[[-1.0916663573461425], [0.9984862256010764], [0.7390047074317105], [-6.2911016192614255], [-2.6777608006974716], [-0.9435081887028358], [-0.20598619876668894], [1.2672302329614478], [-1.207922378898504], [0.30391570691915487], [-2.1430539595288125], [0.46383631393065317], [-1.6741560425741497], [-1.5257143195825706], [-3.2934313697338147]], [[-3.452011924515054], [-2.847407199188595], [-0.7047510987324104]]], "weights": [[[0.01716269961112094, -1.2102044120787734, 0.9679495985742814, -0.2231710046490519], [0.09710903985362261, 3.0386827640949092, -3.493794824259498, -10.938200739871787], [0.3087049156615022, 2.6335961129944803, -2.1063158545423137, -9.697136690528634], [-0.5176789631701939, -3.0992014515808344, 12.580610694244443, 14.470515838513382], [0.03525416347948752, -0.6313323008059006, 0.5239902671134864, -0.3670001093686114], [0.17707135547223604, 2.120438794232096, -3.519761128305386, 0.3693094852892018], [-0.37151386652376067, -0.3528703068338813, 2.412401856018861, -1.8128162905426408], [0.6385807281629465, 2.034519934001132, -4.27373465047343, -5.468721179919799], [0.14064516658168694, -0.4506851272905853, 0.6864026147892212, 0.32630433725514235], [0.0011951171474893396, 2.0137129917085193, -2.366166856566923, -4.724586265283417], [-0.2865759161417677, -2.603611319824108, 3.370038042558419, 8.475300935218169], [-0.5337757849262557, 1.7885338876084198, -3.212085478074747, -6.74329773571393], [-0.15465245357400173, 1.006732032733757, -0.3628215865086176, -0.36139651427288416], [-0.12860729498871518, -0.4242261941266465, 0.4684885715287649, 0.30866003800158065], [0.2966313377250204, -5.901329522394816, 5.895226466916493, 23.98996384127493]], [[-0.3465823083736708, -4.369042167862435, -3.536065139906734, 8.343124050755861, -0.7694821843932776, -2.3757096913667985, -0.8453067743251741, -5.568653542161552, -0.31943371269116355, -3.8753580951044047, 2.5834994299177, -4.097723848235371, -1.0303255942145462, 0.005412353476934417, 3.4443130926736423], [-1.31757801771625, -5.018943164249061, -4.674513846960255, -17.00494477010927, -0.3732463401223295, 1.7723593311670778, -2.788687774799421, 0.20411791135968688, -0.994515788523381, -1.2183197898370222, 0.5617009073325582, -1.9086350754935548, -0.22069848471469436, -0.6431672146528736, 12.735934493016071], [-0.8825415766696413, 5.234209447879929, 4.17415543455118, -8.489610292736055, -0.4745925658356952, 2.2172956914734794, -0.9030909802297077, 4.96876325627577, -0.9022445620824984, 3.1644775125148974, -6.13441339471244, 4.2601651082402485, 0.35954166596725384, -0.5693291307374503, -8.587260294966665]]], "cost": "CrossEntropyCost", "sizes": [4, 15, 3]}