{"sizes": [4, 15, 3], "weights": [[[0.019812402435637668, 0.09210853176272249, -0.7772114354594306, -1.0818401928891475], [0.057220781567837095, -0.1814079777946819, 1.415962387076315, 2.5815900600281525], [0.07127545104888292, -0.28951692464141776, 1.7268823943728677, 2.8241684666401294], [-0.0707375625977553, 0.29452825367310614, -2.103087319947553, -3.885721807104989], [-0.032350888348093756, 0.13427374164411854, -0.6159352457679533, -0.8808806857499412], [-0.029139990348337384, -0.12810423828530315, 0.8816253258061224, 1.5862277732075514], [-0.01820026063762267, -0.11761570960358442, 0.6512525713160797, 0.953102888970692], [0.041340295296967006, -0.0873060736853344, 0.3061822416927019, 0.508478474662762], [-0.061010901708872356, 0.003796359803364863, -0.19908451622350312, -0.05987511503797624], [0.018906380963290097, -0.2332508142952341, 1.7957578778446337, 3.2202875595275997], [-0.0011354330532077413, -0.009519575044482467, -0.17784315784300148, -0.21306491952461598], [-0.033106033915150275, 0.07940237838518334, -0.5413193816388564, -1.0368139850039393], [-0.1178180353000403, 0.38918680566286773, -2.028162592395403, -2.941447567343828], [0.0716696666473026, -0.21869785334358424, 1.7063831598001777, 2.852429541838298], [-0.011215780403691053, 0.07095013985173639, -0.42714918379558203, -0.9273054629045643]], [[-1.0561500198582696, 2.168662955329296, 2.477777594376729, -3.46824317779283, -0.8545307854391723, 1.290481494616555, 0.8216077791561791, 0.4071705319423376, -0.19056216016486305, 2.7671770230175095, -0.2442707803026275, -0.8952027534719474, -2.8305643288447992, 2.494412708246409, -0.7898690941179154], [0.29512167396420136, -0.4535549151860484, -0.6910498890120561, 0.7555784362968007, 0.2641323852001986, -0.2923751284422422, -0.26901638069828604, -0.13045823806015228, 0.14014910086876753, -0.631370750868133, 0.03895805325098607, 0.13030453040201334, 0.9415994009596874, -0.6434430139485519, 0.04195144592316853], [0.8125462691362545, -2.0391411285668277, -2.2443208925257285, 3.065173421031584, 0.6144712956686957, -1.253049113563906, -0.7651641315095437, -0.40986404050043973, -0.026271466334446714, -2.564164530018088, 0.14291561775477032, 0.7768346890612947, 2.2288966667157286, -2.2474360578027537, 0.7010504377472434]]], "biases": [[[0.1627856045863343], [-0.8222424710521005], [-0.9387006995343435], [1.2015211640765489], [0.21264868525199054], [-0.5625180346878683], [-0.46692134409781194], [-0.6904888424437675], [1.1557995610566363], [-1.0244067298820587], [-1.4086393429024782], [0.05312910295638714], [1.0022658010608962], [-0.9413859689606828], [-0.2445437221454027]], [[-1.9853707690003846], [-0.8570213460098405], [-0.2430266544409468]]], "cost": "CrossEntropyCost"}